<?xml version="1.0"?>
<!-- DTD for the XMLBIF 0.3 format -->
<!DOCTYPE BIF [
	<!ELEMENT BIF ( NETWORK )*>
	      <!ATTLIST BIF VERSION CDATA #REQUIRED>
	<!ELEMENT NETWORK ( NAME, ( PROPERTY | VARIABLE | DEFINITION )* )>
	<!ELEMENT NAME (#PCDATA)>
	<!ELEMENT VARIABLE ( NAME, ( OUTCOME |  PROPERTY )* ) >
	      <!ATTLIST VARIABLE TYPE (nature|decision|utility) "nature">
	<!ELEMENT OUTCOME (#PCDATA)>
	<!ELEMENT DEFINITION ( FOR | GIVEN | TABLE | PROPERTY )* >
	<!ELEMENT FOR (#PCDATA)>
	<!ELEMENT GIVEN (#PCDATA)>
	<!ELEMENT TABLE (#PCDATA)>
	<!ELEMENT PROPERTY (#PCDATA)>
]>
<BIF VERSION="0.3">
<NETWORK>
<VARIABLE TYPE="nature">
  <NAME>Alternator</NAME>
  <OUTCOME>Ok</OUTCOME>
  <OUTCOME>Faulted</OUTCOME>
</VARIABLE>
<VARIABLE TYPE="nature">
  <NAME>FanBelt</NAME>
  <OUTCOME>Ok</OUTCOME>
  <OUTCOME>Slipping</OUTCOME>
  <OUTCOME>Broken</OUTCOME>
</VARIABLE>
<VARIABLE TYPE="nature">
  <NAME>Leak</NAME>
  <OUTCOME>Leak</OUTCOME>
  <OUTCOME>NoLeak</OUTCOME>
</VARIABLE>
<VARIABLE TYPE="nature">
  <NAME>Charge</NAME>
  <OUTCOME>Good</OUTCOME>
  <OUTCOME>Low</OUTCOME>
</VARIABLE>
<VARIABLE TYPE="nature">
  <NAME>BatteryAge</NAME>
  <OUTCOME>New</OUTCOME>
  <OUTCOME>Old</OUTCOME>
</VARIABLE>
<VARIABLE TYPE="nature">
  <NAME>BatteryState</NAME>
  <OUTCOME>Ok</OUTCOME>
  <OUTCOME>Weak</OUTCOME>
</VARIABLE>
<VARIABLE TYPE="nature">
  <NAME>BatteryPower</NAME>
  <OUTCOME>Good</OUTCOME>
  <OUTCOME>Poor</OUTCOME>
</VARIABLE>
<VARIABLE TYPE="nature">
  <NAME>GasInTank</NAME>
  <OUTCOME>Gas</OUTCOME>
  <OUTCOME>NoGas</OUTCOME>
</VARIABLE>
<VARIABLE TYPE="nature">
  <NAME>GasGauge</NAME>
  <OUTCOME>Gas</OUTCOME>
  <OUTCOME>NoGas</OUTCOME>
</VARIABLE>
<VARIABLE TYPE="nature">
  <NAME>Lights</NAME>
  <OUTCOME>Work</OUTCOME>
  <OUTCOME>NoLight</OUTCOME>
</VARIABLE>
<VARIABLE TYPE="nature">
  <NAME>Radio</NAME>
  <OUTCOME>Works</OUTCOME>
  <OUTCOME>Dead</OUTCOME>
</VARIABLE>
<VARIABLE TYPE="nature">
  <NAME>Starter</NAME>
  <OUTCOME>Ok</OUTCOME>
  <OUTCOME>Faulted</OUTCOME>
</VARIABLE>
<VARIABLE TYPE="nature">
  <NAME>Leak2</NAME>
  <OUTCOME>True</OUTCOME>
  <OUTCOME>False</OUTCOME>
</VARIABLE>
<VARIABLE TYPE="nature">
  <NAME>EngineCranks</NAME>
  <OUTCOME>Cranks</OUTCOME>
  <OUTCOME>NoCrank</OUTCOME>
</VARIABLE>
<VARIABLE TYPE="nature">
  <NAME>FuelPump</NAME>
  <OUTCOME>Ok</OUTCOME>
  <OUTCOME>Faulted</OUTCOME>
</VARIABLE>
<VARIABLE TYPE="nature">
  <NAME>Distributor</NAME>
  <OUTCOME>Ok</OUTCOME>
  <OUTCOME>Faulted</OUTCOME>
</VARIABLE>
<VARIABLE TYPE="nature">
  <NAME>SparkPlugs</NAME>
  <OUTCOME>Ok</OUTCOME>
  <OUTCOME>Bad</OUTCOME>
</VARIABLE>
<VARIABLE TYPE="nature">
  <NAME>Starts</NAME>
  <OUTCOME>Yes</OUTCOME>
  <OUTCOME>No</OUTCOME>
</VARIABLE>
<DEFINITION>
  <FOR>Alternator</FOR>
  <TABLE>
    0.999500 0.000500000 
  </TABLE>
</DEFINITION>
<DEFINITION>
  <FOR>FanBelt</FOR>
  <TABLE>
    0.995000 0.00200000 0.00300000 
  </TABLE>
</DEFINITION>
<DEFINITION>
  <FOR>Leak</FOR>
  <TABLE>
    0.000100000 0.999900 
  </TABLE>
</DEFINITION>
<DEFINITION>
  <FOR>Charge</FOR>
  <GIVEN>Alternator</GIVEN>
  <GIVEN>FanBelt</GIVEN>
  <GIVEN>Leak</GIVEN>
  <TABLE>
    0.00000 1.00000 
    1.00000 0.00000 
    0.00000 1.00000 
    0.00000 1.00000 
    0.00000 1.00000 
    0.00000 1.00000 
    0.500000 0.500000 
    0.500000 0.500000 
    0.500000 0.500000 
    0.500000 0.500000 
    0.500000 0.500000 
    0.500000 0.500000 
  </TABLE>
</DEFINITION>
<DEFINITION>
  <FOR>BatteryAge</FOR>
  <TABLE>
    0.700000 0.300000 
  </TABLE>
</DEFINITION>
<DEFINITION>
  <FOR>BatteryState</FOR>
  <GIVEN>BatteryAge</GIVEN>
  <TABLE>
    0.990000 0.0100000 
    0.800000 0.200000 
  </TABLE>
</DEFINITION>
<DEFINITION>
  <FOR>BatteryPower</FOR>
  <GIVEN>Charge</GIVEN>
  <GIVEN>BatteryState</GIVEN>
  <TABLE>
    1.00000 0.00000 
    0.00000 1.00000 
    0.00000 1.00000 
    0.00000 1.00000 
  </TABLE>
</DEFINITION>
<DEFINITION>
  <FOR>GasInTank</FOR>
  <TABLE>
    0.500000 0.500000 
  </TABLE>
</DEFINITION>
<DEFINITION>
  <FOR>GasGauge</FOR>
  <GIVEN>BatteryPower</GIVEN>
  <GIVEN>GasInTank</GIVEN>
  <TABLE>
    1.00000 0.00000 
    0.00000 1.00000 
    0.200000 0.800000 
    0.00000 1.00000 
  </TABLE>
</DEFINITION>
<DEFINITION>
  <FOR>Lights</FOR>
  <GIVEN>BatteryPower</GIVEN>
  <TABLE>
    0.900000 0.100000 
    0.00000 1.00000 
  </TABLE>
</DEFINITION>
<DEFINITION>
  <FOR>Radio</FOR>
  <GIVEN>BatteryPower</GIVEN>
  <TABLE>
    0.900000 0.100000 
    0.100000 0.900000 
  </TABLE>
</DEFINITION>
<DEFINITION>
  <FOR>Starter</FOR>
  <TABLE>
    0.990000 0.0100000 
  </TABLE>
</DEFINITION>
<DEFINITION>
  <FOR>Leak2</FOR>
  <TABLE>
    0.000100000 0.999900 
  </TABLE>
</DEFINITION>
<DEFINITION>
  <FOR>EngineCranks</FOR>
  <GIVEN>BatteryPower</GIVEN>
  <GIVEN>Starter</GIVEN>
  <GIVEN>Leak2</GIVEN>
  <TABLE>
    0.00000 1.00000 
    1.00000 0.00000 
    0.00000 1.00000 
    0.00000 1.00000 
    0.00000 1.00000 
    0.200000 0.800000 
    0.00000 1.00000 
    0.00000 1.00000 
  </TABLE>
</DEFINITION>
<DEFINITION>
  <FOR>FuelPump</FOR>
  <TABLE>
    0.999000 0.00100000 
  </TABLE>
</DEFINITION>
<DEFINITION>
  <FOR>Distributor</FOR>
  <TABLE>
    0.999000 0.00100000 
  </TABLE>
</DEFINITION>
<DEFINITION>
  <FOR>SparkPlugs</FOR>
  <TABLE>
    0.999800 0.000200000 
  </TABLE>
</DEFINITION>
<DEFINITION>
  <FOR>Starts</FOR>
  <GIVEN>EngineCranks</GIVEN>
  <GIVEN>FuelPump</GIVEN>
  <GIVEN>Distributor</GIVEN>
  <GIVEN>SparkPlugs</GIVEN>
  <TABLE>
    1.00000 0.00000 
    0.00000 1.00000 
    0.00000 1.00000 
    0.00000 1.00000 
    0.00000 1.00000 
    0.00000 1.00000 
    0.00000 1.00000 
    0.00000 1.00000 
    0.00000 1.00000 
    0.00000 1.00000 
    0.00000 1.00000 
    0.00000 1.00000 
    0.00000 1.00000 
    0.00000 1.00000 
    0.00000 1.00000 
    0.00000 1.00000 
  </TABLE>
</DEFINITION>
</NETWORK>
</BIF>
